<?xml version="1.0"?>
<opencv_storage>
<cascade>
  <stageType>BOOST</stageType>
  <featureType>HAAR</featureType>
  <height>24</height>
  <width>24</width>
  <stageParams>
    <boostType>GAB</boostType>
    <minHitRate>9.9500000476837158e-01</minHitRate>
    <maxFalseAlarm>5.0000000000000000e-01</maxFalseAlarm>
    <weightTrimRate>9.4999998807907104e-01</weightTrimRate>
    <maxDepth>1</maxDepth>
    <maxWeakCount>100</maxWeakCount></stageParams>
  <featureParams>
    <maxCatCount>0</maxCatCount>
    <featSize>1</featSize>
    <mode>BASIC</mode></featureParams>
  <stageNum>8</stageNum>
  <stages>
    <!-- stage 0 -->
    <_>
      <maxWeakCount>2</maxWeakCount>
      <stageThreshold>-2.3056407272815704e-01</stageThreshold>
      <weakClassifiers>
        <_>
          <internalNodes>
            0 -1 19 -7.3555959388613701e-03</internalNodes>
          <leafValues>
            5.8075600862503052e-01 -8.5551333427429199e-01</leafValues></_>
        <_>
          <internalNodes>
            0 -1 12 6.1787804588675499e-04</internalNodes>
          <leafValues>
            -7.0778048038482666e-01 6.2494921684265137e-01</leafValues></_></weakClassifiers></_>
    <!-- stage 1 -->
    <_>
      <maxWeakCount>2</maxWeakCount>
      <stageThreshold>-2.3428341746330261e-01</stageThreshold>
      <weakClassifiers>
        <_>
          <internalNodes>
            0 -1 8 -1.9652388989925385e-02</internalNodes>
          <leafValues>
            6.6399997472763062e-01 -7.3026317358016968e-01</leafValues></_>
        <_>
          <internalNodes>
            0 -1 24 2.7422562241554260e-02</internalNodes>
          <leafValues>
            -8.9828342199325562e-01 5.4234349727630615e-01</leafValues></_></weakClassifiers></_>
    <!-- stage 2 -->
    <_>
      <maxWeakCount>4</maxWeakCount>
      <stageThreshold>-9.3050670623779297e-01</stageThreshold>
      <weakClassifiers>
        <_>
          <internalNodes>
            0 -1 7 -6.7334562540054321e-02</internalNodes>
          <leafValues>
            8.5057473182678223e-01 -5.3684210777282715e-01</leafValues></_>
        <_>
          <internalNodes>
            0 -1 17 6.4919531345367432e-02</internalNodes>
          <leafValues>
            -4.9751949310302734e-01 8.2335668802261353e-01</leafValues></_>
        <_>
          <internalNodes>
            0 -1 9 -2.9893327504396439e-02</internalNodes>
          <leafValues>
            6.9523179531097412e-01 -5.2426964044570923e-01</leafValues></_>
        <_>
          <internalNodes>
            0 -1 4 2.3701900499872863e-04</internalNodes>
          <leafValues>
            -6.0531932115554810e-01 6.2812447547912598e-01</leafValues></_></weakClassifiers></_>
    <!-- stage 3 -->
    <_>
      <maxWeakCount>4</maxWeakCount>
      <stageThreshold>-1.2456196546554565e+00</stageThreshold>
      <weakClassifiers>
        <_>
          <internalNodes>
            0 -1 18 2.2919410839676857e-02</internalNodes>
          <leafValues>
            -5.4626864194869995e-01 5.7990866899490356e-01</leafValues></_>
        <_>
          <internalNodes>
            0 -1 15 4.3159816414117813e-03</internalNodes>
          <leafValues>
            -6.4344942569732666e-01 5.0669938325881958e-01</leafValues></_>
        <_>
          <internalNodes>
            0 -1 0 -2.8125256299972534e-02</internalNodes>
          <leafValues>
            7.4092388153076172e-01 -5.2212214469909668e-01</leafValues></_>
        <_>
          <internalNodes>
            0 -1 29 1.4404939065570943e-05</internalNodes>
          <leafValues>
            -9.0514719486236572e-01 4.6622055768966675e-01</leafValues></_></weakClassifiers></_>
    <!-- stage 4 -->
    <_>
      <maxWeakCount>4</maxWeakCount>
      <stageThreshold>-4.4216418266296387e-01</stageThreshold>
      <weakClassifiers>
        <_>
          <internalNodes>
            0 -1 3 1.1652996181510389e-04</internalNodes>
          <leafValues>
            -8.1347149610519409e-01 2.7977839112281799e-01</leafValues></_>
        <_>
          <internalNodes>
            0 -1 16 -4.5788730494678020e-03</internalNodes>
          <leafValues>
            4.9599310755729675e-01 -5.3105527162551880e-01</leafValues></_>
        <_>
          <internalNodes>
            0 -1 23 2.2452864795923233e-02</internalNodes>
          <leafValues>
            -5.9328156709671021e-01 5.5948883295059204e-01</leafValues></_>
        <_>
          <internalNodes>
            0 -1 13 -2.2171340882778168e-02</internalNodes>
          <leafValues>
            5.4169243574142456e-01 -6.2465417385101318e-01</leafValues></_></weakClassifiers></_>
    <!-- stage 5 -->
    <_>
      <maxWeakCount>4</maxWeakCount>
      <stageThreshold>-1.2384670972824097e+00</stageThreshold>
      <weakClassifiers>
        <_>
          <internalNodes>
            0 -1 2 2.7113481337437406e-05</internalNodes>
          <leafValues>
            -7.2532188892364502e-01 3.5202491283416748e-01</leafValues></_>
        <_>
          <internalNodes>
            0 -1 21 5.3611991461366415e-04</internalNodes>
          <leafValues>
            -5.2404439449310303e-01 6.3628697395324707e-01</leafValues></_>
        <_>
          <internalNodes>
            0 -1 10 -6.9574236869812012e-02</internalNodes>
          <leafValues>
            6.2903565168380737e-01 -4.5475488901138306e-01</leafValues></_>
        <_>
          <internalNodes>
            0 -1 27 -2.4221351486630738e-04</internalNodes>
          <leafValues>
            4.6565413475036621e-01 -7.3581600189208984e-01</leafValues></_></weakClassifiers></_>
    <!-- stage 6 -->
    <_>
      <maxWeakCount>5</maxWeakCount>
      <stageThreshold>-2.7873545885086060e-01</stageThreshold>
      <weakClassifiers>
        <_>
          <internalNodes>
            0 -1 20 3.7087555974721909e-02</internalNodes>
          <leafValues>
            -4.8913043737411499e-01 6.6666668653488159e-01</leafValues></_>
        <_>
          <internalNodes>
            0 -1 6 -2.6637677365215495e-05</internalNodes>
          <leafValues>
            4.7894531488418579e-01 -7.1912503242492676e-01</leafValues></_>
        <_>
          <internalNodes>
            0 -1 14 -3.0203048139810562e-02</internalNodes>
          <leafValues>
            6.8745785951614380e-01 -4.7654250264167786e-01</leafValues></_>
        <_>
          <internalNodes>
            0 -1 1 -8.3788618445396423e-02</internalNodes>
          <leafValues>
            7.7786678075790405e-01 -4.4635409116744995e-01</leafValues></_>
        <_>
          <internalNodes>
            0 -1 11 1.0558919981122017e-02</internalNodes>
          <leafValues>
            -5.0965410470962524e-01 7.8033030033111572e-01</leafValues></_></weakClassifiers></_>
    <!-- stage 7 -->
    <_>
      <maxWeakCount>5</maxWeakCount>
      <stageThreshold>-7.4150091409683228e-01</stageThreshold>
      <weakClassifiers>
        <_>
          <internalNodes>
            0 -1 25 9.3767400830984116e-03</internalNodes>
          <leafValues>
            -4.3877550959587097e-01 7.1604937314987183e-01</leafValues></_>
        <_>
          <internalNodes>
            0 -1 22 -6.5893639111891389e-04</internalNodes>
          <leafValues>
            -1. 2.9941439628601074e-01</leafValues></_>
        <_>
          <internalNodes>
            0 -1 26 -7.2083491832017899e-03</internalNodes>
          <leafValues>
            8.2811409235000610e-01 -3.6643266677856445e-01</leafValues></_>
        <_>
          <internalNodes>
            0 -1 28 -1.3676950766239315e-04</internalNodes>
          <leafValues>
            4.4020771980285645e-01 -6.9025290012359619e-01</leafValues></_>
        <_>
          <internalNodes>
            0 -1 5 1.4401969565369654e-05</internalNodes>
          <leafValues>
            -6.5403479337692261e-01 4.5454576611518860e-01</leafValues></_></weakClassifiers></_></stages>
  <features>
    <_>
      <rects>
        <_>
          0 2 6 22 -1.</_>
        <_>
          0 2 3 11 2.</_>
        <_>
          3 13 3 11 2.</_></rects>
      <tilted>0</tilted></_>
    <_>
      <rects>
        <_>
          0 10 12 14 -1.</_>
        <_>
          4 10 4 14 3.</_></rects>
      <tilted>0</tilted></_>
    <_>
      <rects>
        <_>
          0 11 2 1 -1.</_>
        <_>
          1 11 1 1 2.</_></rects>
      <tilted>0</tilted></_>
    <_>
      <rects>
        <_>
          0 11 1 12 -1.</_>
        <_>
          0 15 1 4 3.</_></rects>
      <tilted>0</tilted></_>
    <_>
      <rects>
        <_>
          1 0 2 2 -1.</_>
        <_>
          1 0 1 1 2.</_>
        <_>
          2 1 1 1 2.</_></rects>
      <tilted>0</tilted></_>
    <_>
      <rects>
        <_>
          1 5 2 1 -1.</_>
        <_>
          2 5 1 1 2.</_></rects>
      <tilted>0</tilted></_>
    <_>
      <rects>
        <_>
          1 21 1 2 -1.</_>
        <_>
          1 22 1 1 2.</_></rects>
      <tilted>0</tilted></_>
    <_>
      <rects>
        <_>
          2 6 8 15 -1.</_>
        <_>
          6 6 4 15 2.</_></rects>
      <tilted>0</tilted></_>
    <_>
      <rects>
        <_>
          2 8 12 7 -1.</_>
        <_>
          6 8 4 7 3.</_></rects>
      <tilted>0</tilted></_>
    <_>
      <rects>
        <_>
          2 9 9 12 -1.</_>
        <_>
          5 9 3 12 3.</_></rects>
      <tilted>0</tilted></_>
    <_>
      <rects>
        <_>
          3 11 12 12 -1.</_>
        <_>
          7 11 4 12 3.</_></rects>
      <tilted>0</tilted></_>
    <_>
      <rects>
        <_>
          4 0 8 2 -1.</_>
        <_>
          4 1 8 1 2.</_></rects>
      <tilted>0</tilted></_>
    <_>
      <rects>
        <_>
          5 0 1 2 -1.</_>
        <_>
          5 1 1 1 2.</_></rects>
      <tilted>0</tilted></_>
    <_>
      <rects>
        <_>
          5 19 18 5 -1.</_>
        <_>
          11 19 6 5 3.</_></rects>
      <tilted>0</tilted></_>
    <_>
      <rects>
        <_>
          6 7 6 16 -1.</_>
        <_>
          8 7 2 16 3.</_></rects>
      <tilted>0</tilted></_>
    <_>
      <rects>
        <_>
          7 0 8 2 -1.</_>
        <_>
          7 1 8 1 2.</_></rects>
      <tilted>0</tilted></_>
    <_>
      <rects>
        <_>
          8 1 1 10 -1.</_>
        <_>
          8 6 1 5 2.</_></rects>
      <tilted>0</tilted></_>
    <_>
      <rects>
        <_>
          8 8 15 5 -1.</_>
        <_>
          13 8 5 5 3.</_></rects>
      <tilted>0</tilted></_>
    <_>
      <rects>
        <_>
          8 10 9 8 -1.</_>
        <_>
          11 10 3 8 3.</_></rects>
      <tilted>0</tilted></_>
    <_>
      <rects>
        <_>
          8 13 7 6 -1.</_>
        <_>
          8 16 7 3 2.</_></rects>
      <tilted>0</tilted></_>
    <_>
      <rects>
        <_>
          10 6 9 9 -1.</_>
        <_>
          10 9 9 3 3.</_></rects>
      <tilted>0</tilted></_>
    <_>
      <rects>
        <_>
          11 0 3 1 -1.</_>
        <_>
          12 0 1 1 3.</_></rects>
      <tilted>0</tilted></_>
    <_>
      <rects>
        <_>
          11 0 13 16 -1.</_>
        <_>
          11 8 13 8 2.</_></rects>
      <tilted>0</tilted></_>
    <_>
      <rects>
        <_>
          11 6 2 18 -1.</_>
        <_>
          11 12 2 6 3.</_></rects>
      <tilted>0</tilted></_>
    <_>
      <rects>
        <_>
          12 8 12 16 -1.</_>
        <_>
          12 8 6 8 2.</_>
        <_>
          18 16 6 8 2.</_></rects>
      <tilted>0</tilted></_>
    <_>
      <rects>
        <_>
          14 9 9 2 -1.</_>
        <_>
          17 9 3 2 3.</_></rects>
      <tilted>0</tilted></_>
    <_>
      <rects>
        <_>
          15 17 9 1 -1.</_>
        <_>
          18 17 3 1 3.</_></rects>
      <tilted>0</tilted></_>
    <_>
      <rects>
        <_>
          18 1 6 1 -1.</_>
        <_>
          21 1 3 1 2.</_></rects>
      <tilted>0</tilted></_>
    <_>
      <rects>
        <_>
          22 2 2 2 -1.</_>
        <_>
          23 2 1 2 2.</_></rects>
      <tilted>0</tilted></_>
    <_>
      <rects>
        <_>
          23 3 1 2 -1.</_>
        <_>
          23 4 1 1 2.</_></rects>
      <tilted>0</tilted></_></features></cascade>
</opencv_storage>
