<?xml version="1.0"?>
<opencv_storage>
<myhaar type_id="opencv-haar-classifier">
  <size>
    24 24</size>
  <stages>
    <_>
      <trees>
        <_>
          <_>
            <feature>
              <rects>
                <_>
                  0 6 8 15 -1.</_>
                <_>
                  0 11 8 5 3.</_></rects>
              <tilted>0</tilted></feature>
            <threshold>0.0665786564350128</threshold>
            <left_val>-1.</left_val>
            <right_val>0.7857136726379395</right_val></_></_></trees>
      <stage_threshold>0.7857136726379395</stage_threshold>
      <parent>-1</parent>
      <next>-1</next></_>
    <_>
      <trees>
        <_>
          <_>
            <feature>
              <rects>
                <_>
                  0 20 6 4 -1.</_>
                <_>
                  0 20 3 2 2.</_>
                <_>
                  3 22 3 2 2.</_></rects>
              <tilted>0</tilted></feature>
            <threshold>-2.8241709806025028e-003</threshold>
            <left_val>0.7241382002830505</left_val>
            <right_val>-1.0000009536743164</right_val></_></_></trees>
      <stage_threshold>0.7241382002830505</stage_threshold>
      <parent>0</parent>
      <next>-1</next></_>
    <_>
      <trees>
        <_>
          <_>
            <feature>
              <rects>
                <_>
                  1 4 18 19 -1.</_>
                <_>
                  7 4 6 19 3.</_></rects>
              <tilted>0</tilted></feature>
            <threshold>0.1189424023032188</threshold>
            <left_val>-1.</left_val>
            <right_val>0.6949148774147034</right_val></_></_></trees>
      <stage_threshold>0.6949148774147034</stage_threshold>
      <parent>1</parent>
      <next>-1</next></_>
    <_>
      <trees>
        <_>
          <_>
            <feature>
              <rects>
                <_>
                  10 13 4 4 -1.</_>
                <_>
                  10 15 4 2 2.</_></rects>
              <tilted>0</tilted></feature>
            <threshold>-6.2720337882637978e-003</threshold>
            <left_val>0.6194334030151367</left_val>
            <right_val>-1.0000009536743164</right_val></_></_></trees>
      <stage_threshold>0.6194334030151367</stage_threshold>
      <parent>2</parent>
      <next>-1</next></_>
    <_>
      <trees>
        <_>
          <_>
            <feature>
              <rects>
                <_>
                  1 4 12 18 -1.</_>
                <_>
                  1 10 12 6 3.</_></rects>
              <tilted>0</tilted></feature>
            <threshold>0.1110453009605408</threshold>
            <left_val>0.7699115872383118</left_val>
            <right_val>-1.0000009536743164</right_val></_></_></trees>
      <stage_threshold>0.7699115872383118</stage_threshold>
      <parent>3</parent>
      <next>-1</next></_>
    <_>
      <trees>
        <_>
          <_>
            <feature>
              <rects>
                <_>
                  0 8 12 16 -1.</_>
                <_>
                  0 12 12 8 2.</_></rects>
              <tilted>0</tilted></feature>
            <threshold>0.0658117681741714</threshold>
            <left_val>-1.</left_val>
            <right_val>0.6326525807380676</right_val></_></_></trees>
      <stage_threshold>0.6326525807380676</stage_threshold>
      <parent>4</parent>
      <next>-1</next></_>
    <_>
      <trees>
        <_>
          <_>
            <feature>
              <rects>
                <_>
                  0 3 2 10 -1.</_>
                <_>
                  1 3 1 10 2.</_></rects>
              <tilted>0</tilted></feature>
            <threshold>5.8725038543343544e-003</threshold>
            <left_val>-0.7883598804473877</left_val>
            <right_val>0.7061604857444763</right_val></_></_>
        <_>
          <_>
            <feature>
              <rects>
                <_>
                  12 9 2 12 -1.</_>
                <_>
                  12 9 2 6 2.</_></rects>
              <tilted>1</tilted></feature>
            <threshold>-0.0245310794562101</threshold>
            <left_val>0.8219625949859619</left_val>
            <right_val>-0.2074373960494995</right_val></_></_></trees>
      <stage_threshold>0.0336027108132839</stage_threshold>
      <parent>5</parent>
      <next>-1</next></_></stages></myhaar>
</opencv_storage>
